%YAML:1.0
---
opencv_ml_ann_mlp:
   format: 3
   layer_sizes: [ 2, 2, 1 ]
   activation_function: SIGMOID_SYM
   f_param1: 6.6666666666666663e-01
   f_param2: 1.7159000000000000e+00
   min_val: -9.4999999999999996e-01
   max_val: 9.4999999999999996e-01
   min_val1: -9.7999999999999998e-01
   max_val1: 9.7999999999999998e-01
   training_params:
      train_method: BACKPROP
      dw_scale: 1.0000000000000001e-01
      moment_scale: 0.
      term_criteria:
         epsilon: 1.0000000000000000e-08
         iterations: 10000
   input_scale:
      - 2.
      - -1.
      - 2.
      - -1.
   output_scale:
      - 5.2631578947368418e-01
      - 4.9999999999999994e-01
   inv_output_scale:
      - 1.8999999999999999e+00
      - -9.4999999999999996e-01
   weights:
      -
         - -2.6134983545157184e+00
         - -2.4530983514753784e+00
         - -2.5779730142989457e+00
         - -2.4214716144732051e+00
         - 2.0604083262239872e+00
         - -1.7667583260176676e+00
      -
         - 2.3557762284496553e+00
         - -2.3704039872732499e+00
         - -2.6904466610743651e+00
